digraph Tree {
node [shape=box, style="filled, rounded", color="black", fontname="helvetica"] ;
edge [fontname="helvetica"] ;
0 [label="petal width (cm) <= 0.8\ngini = 0.67\nsamples = 93\nvalue = [50, 54, 46]\nclass = versicolor", fillcolor="#f7fefa"] ;
1 [label="gini = 0.0\nsamples = 29\nvalue = [50, 0, 0]\nclass = setosa", fillcolor="#e58139"] ;
0 -> 1 [labeldistance=2.5, labelangle=45, headlabel="True"] ;
2 [label="petal length (cm) <= 4.95\ngini = 0.5\nsamples = 64\nvalue = [0, 54, 46]\nclass = versicolor", fillcolor="#e2fbec"] ;
0 -> 2 [labeldistance=2.5, labelangle=-45, headlabel="False"] ;
3 [label="petal length (cm) <= 4.75\ngini = 0.23\nsamples = 38\nvalue = [0, 53, 8]\nclass = versicolor", fillcolor="#57e994"] ;
2 -> 3 ;
4 [label="petal width (cm) <= 1.65\ngini = 0.08\nsamples = 30\nvalue = [0, 47, 2]\nclass = versicolor", fillcolor="#41e686"] ;
3 -> 4 ;
5 [label="gini = 0.0\nsamples = 29\nvalue = [0, 47, 0]\nclass = versicolor", fillcolor="#39e581"] ;
4 -> 5 ;
6 [label="gini = 0.0\nsamples = 1\nvalue = [0, 0, 2]\nclass = virginica", fillcolor="#8139e5"] ;
4 -> 6 ;
7 [label="sepal length (cm) <= 6.55\ngini = 0.5\nsamples = 8\nvalue = [0, 6, 6]\nclass = versicolor", fillcolor="#ffffff"] ;
3 -> 7 ;
8 [label="sepal length (cm) <= 5.95\ngini = 0.38\nsamples = 6\nvalue = [0, 2, 6]\nclass = virginica", fillcolor="#ab7bee"] ;
7 -> 8 ;
9 [label="sepal width (cm) <= 3.0\ngini = 0.5\nsamples = 2\nvalue = [0, 1, 1]\nclass = versicolor", fillcolor="#ffffff"] ;
8 -> 9 ;
10 [label="gini = 0.0\nsamples = 1\nvalue = [0, 0, 1]\nclass = virginica", fillcolor="#8139e5"] ;
9 -> 10 ;
11 [label="gini = 0.0\nsamples = 1\nvalue = [0, 1, 0]\nclass = versicolor", fillcolor="#39e581"] ;
9 -> 11 ;
12 [label="sepal width (cm) <= 2.6\ngini = 0.28\nsamples = 4\nvalue = [0, 1, 5]\nclass = virginica", fillcolor="#9a61ea"] ;
8 -> 12 ;
13 [label="gini = 0.0\nsamples = 1\nvalue = [0, 1, 0]\nclass = versicolor", fillcolor="#39e581"] ;
12 -> 13 ;
14 [label="gini = 0.0\nsamples = 3\nvalue = [0, 0, 5]\nclass = virginica", fillcolor="#8139e5"] ;
12 -> 14 ;
15 [label="gini = 0.0\nsamples = 2\nvalue = [0, 4, 0]\nclass = versicolor", fillcolor="#39e581"] ;
7 -> 15 ;
16 [label="petal width (cm) <= 1.75\ngini = 0.05\nsamples = 26\nvalue = [0, 1, 38]\nclass = virginica", fillcolor="#843ee6"] ;
2 -> 16 ;
17 [label="sepal length (cm) <= 6.5\ngini = 0.38\nsamples = 4\nvalue = [0, 1, 3]\nclass = virginica", fillcolor="#ab7bee"] ;
16 -> 17 ;
18 [label="gini = 0.0\nsamples = 3\nvalue = [0, 0, 3]\nclass = virginica", fillcolor="#8139e5"] ;
17 -> 18 ;
19 [label="gini = 0.0\nsamples = 1\nvalue = [0, 1, 0]\nclass = versicolor", fillcolor="#39e581"] ;
17 -> 19 ;
20 [label="gini = 0.0\nsamples = 22\nvalue = [0, 0, 35]\nclass = virginica", fillcolor="#8139e5"] ;
16 -> 20 ;
}